<?xml version="1.0"?>
<opencv_storage>
<myfacedetector type_id="opencv-haar-classifier">
  <size>
    24 24</size>
  <stages>
    <_>
      <trees>
        <_>
          <_>
            <feature>
              <rects>
                <_>
                  0 0 24 24 -1.</_>
                <_>
                  8 8 8 8 9.</_></rects>
              <tilted>0</tilted></feature>
            <threshold>0.7230561971664429</threshold>
            <left_val>-0.5355343222618103</left_val>
            <right_val>0.8504434227943420</right_val></_></_>
        <_>
          <_>
            <feature>
              <rects>
                <_>
                  11 11 2 8 -1.</_>
                <_>
                  11 15 2 4 2.</_></rects>
              <tilted>0</tilted></feature>
            <threshold>1.6213150229305029e-003</threshold>
            <left_val>0.3701586127281189</left_val>
            <right_val>-0.9016774892807007</right_val></_></_>
        <_>
          <_>
            <feature>
              <rects>
                <_>
                  0 4 8 10 -1.</_>
                <_>
                  4 4 4 10 2.</_></rects>
              <tilted>0</tilted></feature>
            <threshold>0.0344968289136887</threshold>
            <left_val>-0.3869672119617462</left_val>
            <right_val>0.6775469183921814</right_val></_></_></trees>
      <stage_threshold>-0.7596648931503296</stage_threshold>
      <parent>-1</parent>
      <next>-1</next></_>
    <_>
      <trees>
        <_>
          <_>
            <feature>
              <rects>
                <_>
                  0 6 24 15 -1.</_>
                <_>
                  6 6 12 15 2.</_></rects>
              <tilted>0</tilted></feature>
            <threshold>0.2182094007730484</threshold>
            <left_val>-0.4179097115993500</left_val>
            <right_val>0.8484656810760498</right_val></_></_>
        <_>
          <_>
            <feature>
              <rects>
                <_>
                  4 0 20 10 -1.</_>
                <_>
                  4 5 20 5 2.</_></rects>
              <tilted>0</tilted></feature>
            <threshold>0.0844393372535706</threshold>
            <left_val>-0.3190819919109345</left_val>
            <right_val>0.5182299017906189</right_val></_></_>
        <_>
          <_>
            <feature>
              <rects>
                <_>
                  0 15 24 9 -1.</_>
                <_>
                  6 15 12 9 2.</_></rects>
              <tilted>0</tilted></feature>
            <threshold>-0.1172783002257347</threshold>
            <left_val>0.7393934726715088</left_val>
            <right_val>-0.2636632025241852</right_val></_></_>
        <_>
          <_>
            <feature>
              <rects>
                <_>
                  2 0 21 24 -1.</_>
                <_>
                  9 8 7 8 9.</_></rects>
              <tilted>0</tilted></feature>
            <threshold>0.9711893200874329</threshold>
            <left_val>-0.1362424939870834</left_val>
            <right_val>0.8208252787590027</right_val></_></_>
        <_>
          <_>
            <feature>
              <rects>
                <_>
                  0 4 6 20 -1.</_>
                <_>
                  0 4 3 10 2.</_>
                <_>
                  3 14 3 10 2.</_></rects>
              <tilted>0</tilted></feature>
            <threshold>-0.0407774709165096</threshold>
            <left_val>0.6572523117065430</left_val>
            <right_val>-0.1890546977519989</right_val></_></_>
        <_>
          <_>
            <feature>
              <rects>
                <_>
                  18 6 6 10 -1.</_>
                <_>
                  18 6 3 10 2.</_></rects>
              <tilted>0</tilted></feature>
            <threshold>0.0416546799242496</threshold>
            <left_val>-0.1324045062065125</left_val>
            <right_val>0.6940600872039795</right_val></_></_></trees>
      <stage_threshold>-0.6318920254707336</stage_threshold>
      <parent>0</parent>
      <next>-1</next></_>
    <_>
      <trees>
        <_>
          <_>
            <feature>
              <rects>
                <_>
                  0 0 24 24 -1.</_>
                <_>
                  8 8 8 8 9.</_></rects>
              <tilted>0</tilted></feature>
            <threshold>0.8925271034240723</threshold>
            <left_val>-0.4460330903530121</left_val>
            <right_val>0.7958043813705444</right_val></_></_>
        <_>
          <_>
            <feature>
              <rects>
                <_>
                  16 1 5 6 -1.</_>
                <_>
                  16 4 5 3 2.</_></rects>
              <tilted>0</tilted></feature>
            <threshold>4.4868630357086658e-003</threshold>
            <left_val>-0.3154309988021851</left_val>
            <right_val>0.3111562132835388</right_val></_></_>
        <_>
          <_>
            <feature>
              <rects>
                <_>
                  6 13 5 6 -1.</_>
                <_>
                  4 15 5 2 3.</_></rects>
              <tilted>1</tilted></feature>
            <threshold>-0.0154626499861479</threshold>
            <left_val>0.4949307143688202</left_val>
            <right_val>-0.3791477084159851</right_val></_></_>
        <_>
          <_>
            <feature>
              <rects>
                <_>
                  16 2 6 4 -1.</_>
                <_>
                  16 4 6 2 2.</_></rects>
              <tilted>0</tilted></feature>
            <threshold>-2.1199269685894251e-003</threshold>
            <left_val>0.3271341025829315</left_val>
            <right_val>-0.1131182014942169</right_val></_></_>
        <_>
          <_>
            <feature>
              <rects>
                <_>
                  8 10 6 6 -1.</_>
                <_>
                  8 13 6 3 2.</_></rects>
              <tilted>0</tilted></feature>
            <threshold>-3.5564138670451939e-005</threshold>
            <left_val>0.3247270882129669</left_val>
            <right_val>-0.5927178263664246</right_val></_></_>
        <_>
          <_>
            <feature>
              <rects>
                <_>
                  10 10 5 12 -1.</_>
                <_>
                  10 13 5 6 2.</_></rects>
              <tilted>0</tilted></feature>
            <threshold>2.0689879602286965e-004</threshold>
            <left_val>-0.3724108934402466</left_val>
            <right_val>0.3507573008537293</right_val></_></_>
        <_>
          <_>
            <feature>
              <rects>
                <_>
                  4 0 15 24 -1.</_>
                <_>
                  4 8 15 8 3.</_></rects>
              <tilted>0</tilted></feature>
            <threshold>-0.2264861017465591</threshold>
            <left_val>0.9143115878105164</left_val>
            <right_val>-0.2331009954214096</right_val></_></_>
        <_>
          <_>
            <feature>
              <rects>
                <_>
                  13 0 11 8 -1.</_>
                <_>
                  13 4 11 4 2.</_></rects>
              <tilted>0</tilted></feature>
            <threshold>6.5360958687961102e-003</threshold>
            <left_val>-0.2772367894649506</left_val>
            <right_val>0.2264551073312759</right_val></_></_>
        <_>
          <_>
            <feature>
              <rects>
                <_>
                  0 0 6 4 -1.</_>
                <_>
                  0 2 6 2 2.</_></rects>
              <tilted>0</tilted></feature>
            <threshold>7.6405378058552742e-004</threshold>
            <left_val>-0.4605594873428345</left_val>
            <right_val>0.3373950123786926</right_val></_></_>
        <_>
          <_>
            <feature>
              <rects>
                <_>
                  13 13 6 4 -1.</_>
                <_>
                  13 13 6 2 2.</_></rects>
              <tilted>1</tilted></feature>
            <threshold>1.6189259476959705e-003</threshold>
            <left_val>-0.2992185056209564</left_val>
            <right_val>0.0992741584777832</right_val></_></_>
        <_>
          <_>
            <feature>
              <rects>
                <_>
                  0 10 8 10 -1.</_>
                <_>
                  4 10 4 10 2.</_></rects>
              <tilted>0</tilted></feature>
            <threshold>0.0451831407845020</threshold>
            <left_val>-0.2814871072769165</left_val>
            <right_val>0.6863799095153809</right_val></_></_>
        <_>
          <_>
            <feature>
              <rects>
                <_>
                  18 10 6 8 -1.</_>
                <_>
                  18 10 3 8 2.</_></rects>
              <tilted>0</tilted></feature>
            <threshold>-0.0179313402622938</threshold>
            <left_val>0.6263062953948975</left_val>
            <right_val>-0.3625563085079193</right_val></_></_>
        <_>
          <_>
            <feature>
              <rects>
                <_>
                  11 13 4 6 -1.</_>
                <_>
                  11 13 2 6 2.</_></rects>
              <tilted>1</tilted></feature>
            <threshold>1.5307350258808583e-004</threshold>
            <left_val>-0.6405398845672607</left_val>
            <right_val>0.4036684930324554</right_val></_></_>
        <_>
          <_>
            <feature>
              <rects>
                <_>
                  12 0 12 22 -1.</_>
                <_>
                  15 0 6 22 2.</_></rects>
              <tilted>0</tilted></feature>
            <threshold>0.0254048202186823</threshold>
            <left_val>-0.4067628085613251</left_val>
            <right_val>0.3897630870342255</right_val></_></_>
        <_>
          <_>
            <feature>
              <rects>
                <_>
                  0 12 4 11 -1.</_>
                <_>
                  2 12 2 11 2.</_></rects>
              <tilted>0</tilted></feature>
            <threshold>-6.4002088038250804e-005</threshold>
            <left_val>0.5350614190101624</left_val>
            <right_val>-0.6964647769927979</right_val></_></_></trees>
      <stage_threshold>-1.3855609893798828</stage_threshold>
      <parent>1</parent>
      <next>-1</next></_>
    <_>
      <trees>
        <_>
          <_>
            <feature>
              <rects>
                <_>
                  0 0 24 24 -1.</_>
                <_>
                  8 8 8 8 9.</_></rects>
              <tilted>0</tilted></feature>
            <threshold>1.0219939947128296</threshold>
            <left_val>-0.3726165890693665</left_val>
            <right_val>0.7546120285987854</right_val></_></_>
        <_>
          <_>
            <feature>
              <rects>
                <_>
                  11 18 3 6 -1.</_>
                <_>
                  11 21 3 3 2.</_></rects>
              <tilted>0</tilted></feature>
            <threshold>-0.0102407904341817</threshold>
            <left_val>0.5382307767868042</left_val>
            <right_val>-0.2278943955898285</right_val></_></_>
        <_>
          <_>
            <feature>
              <rects>
                <_>
                  7 9 4 6 -1.</_>
                <_>
                  7 12 4 3 2.</_></rects>
              <tilted>0</tilted></feature>
            <threshold>-1.9569389405660331e-004</threshold>
            <left_val>0.2545101046562195</left_val>
            <right_val>-0.4685114920139313</right_val></_></_>
        <_>
          <_>
            <feature>
              <rects>
                <_>
                  11 17 3 1 -1.</_>
                <_>
                  12 17 1 1 3.</_></rects>
              <tilted>0</tilted></feature>
            <threshold>6.1136030126363039e-004</threshold>
            <left_val>0.1076882034540176</left_val>
            <right_val>-0.6463683247566223</right_val></_></_>
        <_>
          <_>
            <feature>
              <rects>
                <_>
                  2 21 2 3 -1.</_>
                <_>
                  2 22 2 1 3.</_></rects>
              <tilted>0</tilted></feature>
            <threshold>-1.2717139907181263e-003</threshold>
            <left_val>-0.7193176150321960</left_val>
            <right_val>0.1927520036697388</right_val></_></_>
        <_>
          <_>
            <feature>
              <rects>
                <_>
                  12 22 3 1 -1.</_>
                <_>
                  13 22 1 1 3.</_></rects>
              <tilted>0</tilted></feature>
            <threshold>-6.0952367493882775e-004</threshold>
            <left_val>-0.5029320716857910</left_val>
            <right_val>0.0857688188552856</right_val></_></_>
        <_>
          <_>
            <feature>
              <rects>
                <_>
                  6 16 5 3 -1.</_>
                <_>
                  5 17 5 1 3.</_></rects>
              <tilted>1</tilted></feature>
            <threshold>-0.0100228795781732</threshold>
            <left_val>0.6050997972488403</left_val>
            <right_val>-0.1571571975946426</right_val></_></_>
        <_>
          <_>
            <feature>
              <rects>
                <_>
                  19 21 5 3 -1.</_>
                <_>
                  19 22 5 1 3.</_></rects>
              <tilted>0</tilted></feature>
            <threshold>-3.7604419048875570e-003</threshold>
            <left_val>-0.5561075210571289</left_val>
            <right_val>0.0730084925889969</right_val></_></_>
        <_>
          <_>
            <feature>
              <rects>
                <_>
                  0 21 5 3 -1.</_>
                <_>
                  0 22 5 1 3.</_></rects>
              <tilted>0</tilted></feature>
            <threshold>1.9601129461079836e-003</threshold>
            <left_val>0.1639440059661865</left_val>
            <right_val>-0.6418284773826599</right_val></_></_></trees>
      <stage_threshold>-0.7489625811576843</stage_threshold>
      <parent>2</parent>
      <next>-1</next></_>
    <_>
      <trees>
        <_>
          <_>
            <feature>
              <rects>
                <_>
                  0 10 24 10 -1.</_>
                <_>
                  6 10 12 10 2.</_></rects>
              <tilted>0</tilted></feature>
            <threshold>0.1694377064704895</threshold>
            <left_val>-0.3361940979957581</left_val>
            <right_val>0.6182848811149597</right_val></_></_>
        <_>
          <_>
            <feature>
              <rects>
                <_>
                  20 11 4 9 -1.</_>
                <_>
                  21 12 2 9 2.</_></rects>
              <tilted>1</tilted></feature>
            <threshold>-0.0177791994065046</threshold>
            <left_val>0.5537139773368835</left_val>
            <right_val>-0.1083401963114739</right_val></_></_>
        <_>
          <_>
            <feature>
              <rects>
                <_>
                  2 0 14 12 -1.</_>
                <_>
                  2 6 14 6 2.</_></rects>
              <tilted>0</tilted></feature>
            <threshold>0.0888165533542633</threshold>
            <left_val>-0.3431059122085571</left_val>
            <right_val>0.3072710931301117</right_val></_></_>
        <_>
          <_>
            <feature>
              <rects>
                <_>
                  20 6 4 11 -1.</_>
                <_>
                  20 6 2 11 2.</_></rects>
              <tilted>0</tilted></feature>
            <threshold>-0.0210874304175377</threshold>
            <left_val>0.5989223718643189</left_val>
            <right_val>-0.1087393984198570</right_val></_></_>
        <_>
          <_>
            <feature>
              <rects>
                <_>
                  4 18 6 6 -1.</_>
                <_>
                  4 18 3 3 2.</_>
                <_>
                  7 21 3 3 2.</_></rects>
              <tilted>0</tilted></feature>
            <threshold>-8.3787571638822556e-003</threshold>
            <left_val>0.4925504028797150</left_val>
            <right_val>-0.2335053980350494</right_val></_></_>
        <_>
          <_>
            <feature>
              <rects>
                <_>
                  20 11 4 9 -1.</_>
                <_>
                  21 12 2 9 2.</_></rects>
              <tilted>1</tilted></feature>
            <threshold>0.0110109597444534</threshold>
            <left_val>-0.0764222368597984</left_val>
            <right_val>0.2979426085948944</right_val></_></_>
        <_>
          <_>
            <feature>
              <rects>
                <_>
                  4 11 9 4 -1.</_>
                <_>
                  3 12 9 2 2.</_></rects>
              <tilted>1</tilted></feature>
            <threshold>-0.0138183403760195</threshold>
            <left_val>0.5021706819534302</left_val>
            <right_val>-0.2394500970840454</right_val></_></_>
        <_>
          <_>
            <feature>
              <rects>
                <_>
                  15 12 5 3 -1.</_>
                <_>
                  15 13 5 1 3.</_></rects>
              <tilted>0</tilted></feature>
            <threshold>4.5295390300452709e-003</threshold>
            <left_val>0.1290594935417175</left_val>
            <right_val>-0.5524805784225464</right_val></_></_>
        <_>
          <_>
            <feature>
              <rects>
                <_>
                  2 12 20 3 -1.</_>
                <_>
                  2 13 20 1 3.</_></rects>
              <tilted>0</tilted></feature>
            <threshold>-7.6153478585183620e-003</threshold>
            <left_val>-0.8022127747535706</left_val>
            <right_val>0.1391438990831375</right_val></_></_>
        <_>
          <_>
            <feature>
              <rects>
                <_>
                  11 0 6 5 -1.</_>
                <_>
                  11 0 3 5 2.</_></rects>
              <tilted>0</tilted></feature>
            <threshold>8.4228152409195900e-003</threshold>
            <left_val>-0.1807689070701599</left_val>
            <right_val>0.2365095019340515</right_val></_></_>
        <_>
          <_>
            <feature>
              <rects>
                <_>
                  10 15 4 1 -1.</_>
                <_>
                  11 15 2 1 2.</_></rects>
              <tilted>0</tilted></feature>
            <threshold>-1.3715659733861685e-003</threshold>
            <left_val>-1.</left_val>
            <right_val>0.1246740967035294</right_val></_></_>
        <_>
          <_>
            <feature>
              <rects>
                <_>
                  23 1 1 3 -1.</_>
                <_>
                  23 2 1 1 3.</_></rects>
              <tilted>0</tilted></feature>
            <threshold>-9.0982578694820404e-004</threshold>
            <left_val>-0.5313678979873657</left_val>
            <right_val>0.0395126417279243</right_val></_></_></trees>
      <stage_threshold>-0.8197715878486633</stage_threshold>
      <parent>3</parent>
      <next>-1</next></_>
    <_>
      <trees>
        <_>
          <_>
            <feature>
              <rects>
                <_>
                  8 0 16 8 -1.</_>
                <_>
                  12 4 8 8 2.</_></rects>
              <tilted>1</tilted></feature>
            <threshold>0.2071049958467484</threshold>
            <left_val>-0.3219746947288513</left_val>
            <right_val>0.5240796208381653</right_val></_></_>
        <_>
          <_>
            <feature>
              <rects>
                <_>
                  20 0 4 7 -1.</_>
                <_>
                  20 0 2 7 2.</_></rects>
              <tilted>0</tilted></feature>
            <threshold>-0.0105762295424938</threshold>
            <left_val>0.3814593851566315</left_val>
            <right_val>-0.0929729491472244</right_val></_></_>
        <_>
          <_>
            <feature>
              <rects>
                <_>
                  5 10 10 4 -1.</_>
                <_>
                  5 10 10 2 2.</_></rects>
              <tilted>1</tilted></feature>
            <threshold>0.0574982687830925</threshold>
            <left_val>-0.1912443935871124</left_val>
            <right_val>0.5749272108078003</right_val></_></_>
        <_>
          <_>
            <feature>
              <rects>
                <_>
                  20 0 4 7 -1.</_>
                <_>
                  20 0 2 7 2.</_></rects>
              <tilted>0</tilted></feature>
            <threshold>3.2756279688328505e-003</threshold>
            <left_val>-0.1060717031359673</left_val>
            <right_val>0.2154864966869354</right_val></_></_>
        <_>
          <_>
            <feature>
              <rects>
                <_>
                  0 1 4 6 -1.</_>
                <_>
                  2 1 2 6 2.</_></rects>
              <tilted>0</tilted></feature>
            <threshold>6.9937170483171940e-003</threshold>
            <left_val>-0.2044457048177719</left_val>
            <right_val>0.4848339855670929</right_val></_></_>
        <_>
          <_>
            <feature>
              <rects>
                <_>
                  8 19 14 4 -1.</_>
                <_>
                  8 19 7 4 2.</_></rects>
              <tilted>0</tilted></feature>
            <threshold>-0.0250650793313980</threshold>
            <left_val>0.2504822015762329</left_val>
            <right_val>-0.1015420034527779</right_val></_></_>
        <_>
          <_>
            <feature>
              <rects>
                <_>
                  0 2 6 15 -1.</_>
                <_>
                  3 2 3 15 2.</_></rects>
              <tilted>0</tilted></feature>
            <threshold>-0.0425973087549210</threshold>
            <left_val>0.6340631246566773</left_val>
            <right_val>-0.1539275944232941</right_val></_></_>
        <_>
          <_>
            <feature>
              <rects>
                <_>
                  17 15 1 3 -1.</_>
                <_>
                  16 16 1 1 3.</_></rects>
              <tilted>1</tilted></feature>
            <threshold>-1.6988059505820274e-003</threshold>
            <left_val>-0.6176683902740479</left_val>
            <right_val>0.1594627052545548</right_val></_></_>
        <_>
          <_>
            <feature>
              <rects>
                <_>
                  0 7 6 5 -1.</_>
                <_>
                  3 7 3 5 2.</_></rects>
              <tilted>0</tilted></feature>
            <threshold>3.5463001113384962e-003</threshold>
            <left_val>-0.3969744145870209</left_val>
            <right_val>0.2077198028564453</right_val></_></_>
        <_>
          <_>
            <feature>
              <rects>
                <_>
                  15 18 1 3 -1.</_>
                <_>
                  14 19 1 1 3.</_></rects>
              <tilted>1</tilted></feature>
            <threshold>2.1199979819357395e-003</threshold>
            <left_val>0.0870946273207664</left_val>
            <right_val>-0.6147235035896301</right_val></_></_>
        <_>
          <_>
            <feature>
              <rects>
                <_>
                  9 18 3 1 -1.</_>
                <_>
                  10 19 1 1 3.</_></rects>
              <tilted>1</tilted></feature>
            <threshold>-1.0299220448359847e-003</threshold>
            <left_val>-0.6163756847381592</left_val>
            <right_val>0.1483937054872513</right_val></_></_>
        <_>
          <_>
            <feature>
              <rects>
                <_>
                  4 3 16 20 -1.</_>
                <_>
                  12 3 8 10 2.</_>
                <_>
                  4 13 8 10 2.</_></rects>
              <tilted>0</tilted></feature>
            <threshold>-0.0844607800245285</threshold>
            <left_val>-0.6942719817161560</left_val>
            <right_val>0.0891488417983055</right_val></_></_>
        <_>
          <_>
            <feature>
              <rects>
                <_>
                  7 17 4 3 -1.</_>
                <_>
                  6 18 4 1 3.</_></rects>
              <tilted>1</tilted></feature>
            <threshold>-3.3131008967757225e-003</threshold>
            <left_val>0.3541389107704163</left_val>
            <right_val>-0.2469277977943420</right_val></_></_>
        <_>
          <_>
            <feature>
              <rects>
                <_>
                  3 0 18 24 -1.</_>
                <_>
                  3 6 18 12 2.</_></rects>
              <tilted>0</tilted></feature>
            <threshold>-0.2813600003719330</threshold>
            <left_val>0.8522400259971619</left_val>
            <right_val>-0.1066756024956703</right_val></_></_></trees>
      <stage_threshold>-0.8339626789093018</stage_threshold>
      <parent>4</parent>
      <next>-1</next></_>
    <_>
      <trees>
        <_>
          <_>
            <feature>
              <rects>
                <_>
                  0 0 24 24 -1.</_>
                <_>
                  8 8 8 8 9.</_></rects>
              <tilted>0</tilted></feature>
            <threshold>1.2643849849700928</threshold>
            <left_val>-0.2033001929521561</left_val>
            <right_val>0.5802878737449646</right_val></_></_>
        <_>
          <_>
            <feature>
              <rects>
                <_>
                  15 0 6 8 -1.</_>
                <_>
                  15 4 6 4 2.</_></rects>
              <tilted>0</tilted></feature>
            <threshold>0.0163400191813707</threshold>
            <left_val>-0.2196397036314011</left_val>
            <right_val>0.2307215929031372</right_val></_></_>
        <_>
          <_>
            <feature>
              <rects>
                <_>
                  2 11 4 10 -1.</_>
                <_>
                  2 11 2 5 2.</_>
                <_>
                  4 16 2 5 2.</_></rects>
              <tilted>0</tilted></feature>
            <threshold>-9.5135355368256569e-003</threshold>
            <left_val>0.3762328028678894</left_val>
            <right_val>-0.2139278948307037</right_val></_></_>
        <_>
          <_>
            <feature>
              <rects>
                <_>
                  14 3 9 2 -1.</_>
                <_>
                  14 4 9 1 2.</_></rects>
              <tilted>0</tilted></feature>
            <threshold>0.0236029606312513</threshold>
            <left_val>0.0159831102937460</left_val>
            <right_val>-0.9999696016311646</right_val></_></_>
        <_>
          <_>
            <feature>
              <rects>
                <_>
                  1 3 9 2 -1.</_>
                <_>
                  1 4 9 1 2.</_></rects>
              <tilted>0</tilted></feature>
            <threshold>1.5060009900480509e-003</threshold>
            <left_val>-0.2829878926277161</left_val>
            <right_val>0.2960843145847321</right_val></_></_>
        <_>
          <_>
            <feature>
              <rects>
                <_>
                  16 8 8 8 -1.</_>
                <_>
                  16 8 4 8 2.</_></rects>
              <tilted>1</tilted></feature>
            <threshold>-0.1100023984909058</threshold>
            <left_val>0.7027580738067627</left_val>
            <right_val>-0.0494030602276325</right_val></_></_>
        <_>
          <_>
            <feature>
              <rects>
                <_>
                  6 19 8 4 -1.</_>
                <_>
                  6 19 4 2 2.</_>
                <_>
                  10 21 4 2 2.</_></rects>
              <tilted>0</tilted></feature>
            <threshold>-3.8721570745110512e-003</threshold>
            <left_val>0.3675710856914520</left_val>
            <right_val>-0.2141779065132141</right_val></_></_>
        <_>
          <_>
            <feature>
              <rects>
                <_>
                  17 11 6 7 -1.</_>
                <_>
                  19 13 2 7 3.</_></rects>
              <tilted>1</tilted></feature>
            <threshold>0.0375520698726177</threshold>
            <left_val>-0.0276097599416971</left_val>
            <right_val>0.4661554098129273</right_val></_></_>
        <_>
          <_>
            <feature>
              <rects>
                <_>
                  0 3 24 6 -1.</_>
                <_>
                  0 3 12 3 2.</_>
                <_>
                  12 6 12 3 2.</_></rects>
              <tilted>0</tilted></feature>
            <threshold>0.0198596008121967</threshold>
            <left_val>0.1506768018007278</left_val>
            <right_val>-0.5606163740158081</right_val></_></_>
        <_>
          <_>
            <feature>
              <rects>
                <_>
                  16 8 8 8 -1.</_>
                <_>
                  16 8 4 8 2.</_></rects>
              <tilted>1</tilted></feature>
            <threshold>0.1804621964693070</threshold>
            <left_val>-0.1017481982707977</left_val>
            <right_val>0.4246658980846405</right_val></_></_>
        <_>
          <_>
            <feature>
              <rects>
                <_>
                  12 8 9 2 -1.</_>
                <_>
                  12 8 9 1 2.</_></rects>
              <tilted>1</tilted></feature>
            <threshold>-8.3235716447234154e-003</threshold>
            <left_val>-0.9204503297805786</left_val>
            <right_val>0.0914111733436584</right_val></_></_>
        <_>
          <_>
            <feature>
              <rects>
                <_>
                  16 8 8 8 -1.</_>
                <_>
                  16 8 4 8 2.</_></rects>
              <tilted>1</tilted></feature>
            <threshold>-0.0667181611061096</threshold>
            <left_val>0.2799960970878601</left_val>
            <right_val>-0.0452341102063656</right_val></_></_>
        <_>
          <_>
            <feature>
              <rects>
                <_>
                  7 14 3 1 -1.</_>
                <_>
                  8 15 1 1 3.</_></rects>
              <tilted>1</tilted></feature>
            <threshold>2.8038490563631058e-003</threshold>
            <left_val>0.0915130078792572</left_val>
            <right_val>-0.8502696156501770</right_val></_></_>
        <_>
          <_>
            <feature>
              <rects>
                <_>
                  18 13 2 6 -1.</_>
                <_>
                  16 15 2 2 3.</_></rects>
              <tilted>1</tilted></feature>
            <threshold>-8.1400871276855469e-003</threshold>
            <left_val>-0.6605188250541687</left_val>
            <right_val>0.0741816535592079</right_val></_></_>
        <_>
          <_>
            <feature>
              <rects>
                <_>
                  7 11 7 6 -1.</_>
                <_>
                  5 13 7 2 3.</_></rects>
              <tilted>1</tilted></feature>
            <threshold>0.0258846804499626</threshold>
            <left_val>-0.1609514951705933</left_val>
            <right_val>0.5224518179893494</right_val></_></_>
        <_>
          <_>
            <feature>
              <rects>
                <_>
                  19 12 3 5 -1.</_>
                <_>
                  20 13 1 5 3.</_></rects>
              <tilted>1</tilted></feature>
            <threshold>5.0824759528040886e-003</threshold>
            <left_val>-0.0755090117454529</left_val>
            <right_val>0.2438251972198486</right_val></_></_>
        <_>
          <_>
            <feature>
              <rects>
                <_>
                  5 12 5 3 -1.</_>
                <_>
                  4 13 5 1 3.</_></rects>
              <tilted>1</tilted></feature>
            <threshold>-4.5375269837677479e-003</threshold>
            <left_val>0.3997103869915009</left_val>
            <right_val>-0.2026425004005432</right_val></_></_>
        <_>
          <_>
            <feature>
              <rects>
                <_>
                  16 15 2 4 -1.</_>
                <_>
                  16 15 2 2 2.</_></rects>
              <tilted>1</tilted></feature>
            <threshold>0.0149908699095249</threshold>
            <left_val>0.0675763934850693</left_val>
            <right_val>-0.5042040944099426</right_val></_></_>
        <_>
          <_>
            <feature>
              <rects>
                <_>
                  2 17 16 5 -1.</_>
                <_>
                  10 17 8 5 2.</_></rects>
              <tilted>0</tilted></feature>
            <threshold>-0.0626318603754044</threshold>
            <left_val>0.5881723761558533</left_val>
            <right_val>-0.1536245942115784</right_val></_></_>
        <_>
          <_>
            <feature>
              <rects>
                <_>
                  18 13 2 6 -1.</_>
                <_>
                  16 15 2 2 3.</_></rects>
              <tilted>1</tilted></feature>
            <threshold>0.0185134895145893</threshold>
            <left_val>0.0663391798734665</left_val>
            <right_val>-0.8781399726867676</right_val></_></_>
        <_>
          <_>
            <feature>
              <rects>
                <_>
                  6 13 6 2 -1.</_>
                <_>
                  8 15 2 2 3.</_></rects>
              <tilted>1</tilted></feature>
            <threshold>-7.5785820372402668e-003</threshold>
            <left_val>-0.7461091876029968</left_val>
            <right_val>0.1010966971516609</right_val></_></_>
        <_>
          <_>
            <feature>
              <rects>
                <_>
                  20 1 3 2 -1.</_>
                <_>
                  20 2 3 1 2.</_></rects>
              <tilted>0</tilted></feature>
            <threshold>2.7769668959081173e-003</threshold>
            <left_val>0.0522706396877766</left_val>
            <right_val>-0.5482804179191589</right_val></_></_>
        <_>
          <_>
            <feature>
              <rects>
                <_>
                  2 1 1 2 -1.</_>
                <_>
                  2 2 1 1 2.</_></rects>
              <tilted>0</tilted></feature>
            <threshold>-8.5756386397406459e-005</threshold>
            <left_val>-0.4701015055179596</left_val>
            <right_val>0.1863261014223099</right_val></_></_></trees>
      <stage_threshold>-1.1025060415267944</stage_threshold>
      <parent>5</parent>
      <next>-1</next></_>
    <_>
      <trees>
        <_>
          <_>
            <feature>
              <rects>
                <_>
                  3 2 18 20 -1.</_>
                <_>
                  3 7 18 10 2.</_></rects>
              <tilted>0</tilted></feature>
            <threshold>0.2084438949823380</threshold>
            <left_val>-0.3600944876670837</left_val>
            <right_val>0.3383553028106690</right_val></_></_>
        <_>
          <_>
            <feature>
              <rects>
                <_>
                  9 1 7 9 -1.</_>
                <_>
                  9 4 7 3 3.</_></rects>
              <tilted>0</tilted></feature>
            <threshold>0.0207640491425991</threshold>
            <left_val>-0.1977528035640717</left_val>
            <right_val>0.3978832066059113</right_val></_></_>
        <_>
          <_>
            <feature>
              <rects>
                <_>
                  0 15 24 3 -1.</_>
                <_>
                  0 16 24 1 3.</_></rects>
              <tilted>0</tilted></feature>
            <threshold>0.0106820203363895</threshold>
            <left_val>0.0992056727409363</left_val>
            <right_val>-0.8924745917320252</right_val></_></_>
        <_>
          <_>
            <feature>
              <rects>
                <_>
                  2 12 21 4 -1.</_>
                <_>
                  2 14 21 2 2.</_></rects>
              <tilted>0</tilted></feature>
            <threshold>-0.0444357693195343</threshold>
            <left_val>-0.8163126707077026</left_val>
            <right_val>0.0808593034744263</right_val></_></_>
        <_>
          <_>
            <feature>
              <rects>
                <_>
                  3 9 11 2 -1.</_>
                <_>
                  3 9 11 1 2.</_></rects>
              <tilted>1</tilted></feature>
            <threshold>0.0150604797527194</threshold>
            <left_val>-0.2009436935186386</left_val>
            <right_val>0.4086276888847351</right_val></_></_>
        <_>
          <_>
            <feature>
              <rects>
                <_>
                  3 0 18 24 -1.</_>
                <_>
                  3 6 18 12 2.</_></rects>
              <tilted>0</tilted></feature>
            <threshold>-0.2826018929481506</threshold>
            <left_val>0.8479462862014771</left_val>
            <right_val>-0.0863590314984322</right_val></_></_>
        <_>
          <_>
            <feature>
              <rects>
                <_>
                  9 0 2 15 -1.</_>
                <_>
                  10 0 1 15 2.</_></rects>
              <tilted>0</tilted></feature>
            <threshold>4.2791350279003382e-004</threshold>
            <left_val>-0.3255228102207184</left_val>
            <right_val>0.2531419098377228</right_val></_></_>
        <_>
          <_>
            <feature>
              <rects>
                <_>
                  17 12 4 4 -1.</_>
                <_>
                  18 13 2 4 2.</_></rects>
              <tilted>1</tilted></feature>
            <threshold>0.0103787602856755</threshold>
            <left_val>-0.1008410975337029</left_val>
            <right_val>0.4694167971611023</right_val></_></_>
        <_>
          <_>
            <feature>
              <rects>
                <_>
                  6 18 2 4 -1.</_>
                <_>
                  6 18 1 2 2.</_>
                <_>
                  7 20 1 2 2.</_></rects>
              <tilted>0</tilted></feature>
            <threshold>-1.0541599476709962e-003</threshold>
            <left_val>0.3972555100917816</left_val>
            <right_val>-0.1790599972009659</right_val></_></_>
        <_>
          <_>
            <feature>
              <rects>
                <_>
                  14 14 5 2 -1.</_>
                <_>
                  14 14 5 1 2.</_></rects>
              <tilted>1</tilted></feature>
            <threshold>0.0125412503257394</threshold>
            <left_val>0.0546575598418713</left_val>
            <right_val>-0.8842551708221436</right_val></_></_>
        <_>
          <_>
            <feature>
              <rects>
                <_>
                  10 14 2 5 -1.</_>
                <_>
                  10 14 1 5 2.</_></rects>
              <tilted>1</tilted></feature>
            <threshold>-5.7481341063976288e-003</threshold>
            <left_val>-0.9082010984420776</left_val>
            <right_val>0.0865752995014191</right_val></_></_>
        <_>
          <_>
            <feature>
              <rects>
                <_>
                  17 14 4 6 -1.</_>
                <_>
                  18 15 2 6 2.</_></rects>
              <tilted>1</tilted></feature>
            <threshold>-8.8317394256591797e-003</threshold>
            <left_val>0.3380706012248993</left_val>
            <right_val>-0.1882515996694565</right_val></_></_>
        <_>
          <_>
            <feature>
              <rects>
                <_>
                  9 16 4 4 -1.</_>
                <_>
                  8 17 4 2 2.</_></rects>
              <tilted>1</tilted></feature>
            <threshold>5.0515681505203247e-003</threshold>
            <left_val>-0.1486788988113403</left_val>
            <right_val>0.5375729203224182</right_val></_></_></trees>
      <stage_threshold>-0.6374788880348206</stage_threshold>
      <parent>6</parent>
      <next>-1</next></_>
    <_>
      <trees>
        <_>
          <_>
            <feature>
              <rects>
                <_>
                  12 4 12 1 -1.</_>
                <_>
                  15 7 6 1 2.</_></rects>
              <tilted>1</tilted></feature>
            <threshold>0.0156136397272348</threshold>
            <left_val>-0.2523958086967468</left_val>
            <right_val>0.3924668133258820</right_val></_></_>
        <_>
          <_>
            <feature>
              <rects>
                <_>
                  13 15 11 3 -1.</_>
                <_>
                  13 16 11 1 3.</_></rects>
              <tilted>0</tilted></feature>
            <threshold>-4.5682010240852833e-003</threshold>
            <left_val>-0.4388043880462647</left_val>
            <right_val>0.0813418179750443</right_val></_></_>
        <_>
          <_>
            <feature>
              <rects>
                <_>
                  4 9 6 6 -1.</_>
                <_>
                  4 12 6 3 2.</_></rects>
              <tilted>0</tilted></feature>
            <threshold>5.8971601538360119e-003</threshold>
            <left_val>0.1594831943511963</left_val>
            <right_val>-0.6131141185760498</right_val></_></_>
        <_>
          <_>
            <feature>
              <rects>
                <_>
                  15 17 7 3 -1.</_>
                <_>
                  15 18 7 1 3.</_></rects>
              <tilted>0</tilted></feature>
            <threshold>-3.6564860492944717e-003</threshold>
            <left_val>-0.3712339997291565</left_val>
            <right_val>0.0547270700335503</right_val></_></_>
        <_>
          <_>
            <feature>
              <rects>
                <_>
                  2 17 7 3 -1.</_>
                <_>
                  2 18 7 1 3.</_></rects>
              <tilted>0</tilted></feature>
            <threshold>2.2941778879612684e-003</threshold>
            <left_val>0.1162376031279564</left_val>
            <right_val>-0.5694630146026611</right_val></_></_>
        <_>
          <_>
            <feature>
              <rects>
                <_>
                  8 0 8 8 -1.</_>
                <_>
                  10 0 4 8 2.</_></rects>
              <tilted>0</tilted></feature>
            <threshold>0.0109757101163268</threshold>
            <left_val>-0.2214494049549103</left_val>
            <right_val>0.3402881920337677</right_val></_></_>
        <_>
          <_>
            <feature>
              <rects>
                <_>
                  0 0 8 10 -1.</_>
                <_>
                  0 5 8 5 2.</_></rects>
              <tilted>0</tilted></feature>
            <threshold>0.1169029027223587</threshold>
            <left_val>0.0929569974541664</left_val>
            <right_val>-0.8703444004058838</right_val></_></_>
        <_>
          <_>
            <feature>
              <rects>
                <_>
                  15 12 6 6 -1.</_>
                <_>
                  15 12 6 3 2.</_></rects>
              <tilted>1</tilted></feature>
            <threshold>-0.0381819196045399</threshold>
            <left_val>-0.7277390956878662</left_val>
            <right_val>4.5211599208414555e-003</right_val></_></_>
        <_>
          <_>
            <feature>
              <rects>
                <_>
                  9 17 3 1 -1.</_>
                <_>
                  10 17 1 1 3.</_></rects>
              <tilted>0</tilted></feature>
            <threshold>-7.9599232412874699e-004</threshold>
            <left_val>-0.7559989094734192</left_val>
            <right_val>0.0853613764047623</right_val></_></_>
        <_>
          <_>
            <feature>
              <rects>
                <_>
                  18 11 4 6 -1.</_>
                <_>
                  19 12 2 6 2.</_></rects>
              <tilted>1</tilted></feature>
            <threshold>-0.0120793702080846</threshold>
            <left_val>0.3557682037353516</left_val>
            <right_val>-0.0780327618122101</right_val></_></_>
        <_>
          <_>
            <feature>
              <rects>
                <_>
                  6 11 6 4 -1.</_>
                <_>
                  5 12 6 2 2.</_></rects>
              <tilted>1</tilted></feature>
            <threshold>7.8363101929426193e-003</threshold>
            <left_val>-0.1799013018608093</left_val>
            <right_val>0.4028433859348297</right_val></_></_>
        <_>
          <_>
            <feature>
              <rects>
                <_>
                  18 10 6 14 -1.</_>
                <_>
                  21 10 3 7 2.</_>
                <_>
                  18 17 3 7 2.</_></rects>
              <tilted>0</tilted></feature>
            <threshold>-0.0314666591584682</threshold>
            <left_val>0.4382318854331970</left_val>
            <right_val>-0.1311510056257248</right_val></_></_>
        <_>
          <_>
            <feature>
              <rects>
                <_>
                  0 12 6 10 -1.</_>
                <_>
                  0 12 3 5 2.</_>
                <_>
                  3 17 3 5 2.</_></rects>
              <tilted>0</tilted></feature>
            <threshold>0.0158021003007889</threshold>
            <left_val>-0.1359882950782776</left_val>
            <right_val>0.6616408228874207</right_val></_></_>
        <_>
          <_>
            <feature>
              <rects>
                <_>
                  19 10 3 6 -1.</_>
                <_>
                  17 12 3 2 3.</_></rects>
              <tilted>1</tilted></feature>
            <threshold>0.0175491198897362</threshold>
            <left_val>0.0687941312789917</left_val>
            <right_val>-0.3036285936832428</right_val></_></_>
        <_>
          <_>
            <feature>
              <rects>
                <_>
                  5 10 6 3 -1.</_>
                <_>
                  7 12 2 3 3.</_></rects>
              <tilted>1</tilted></feature>
            <threshold>-0.0164851397275925</threshold>
            <left_val>-0.9537764787673950</left_val>
            <right_val>0.0752371773123741</right_val></_></_>
        <_>
          <_>
            <feature>
              <rects>
                <_>
                  15 13 8 3 -1.</_>
                <_>
                  17 15 4 3 2.</_></rects>
              <tilted>1</tilted></feature>
            <threshold>-5.6077581830322742e-003</threshold>
            <left_val>0.1045807972550392</left_val>
            <right_val>-0.1562792062759399</right_val></_></_>
        <_>
          <_>
            <feature>
              <rects>
                <_>
                  7 0 4 21 -1.</_>
                <_>
                  8 0 2 21 2.</_></rects>
              <tilted>0</tilted></feature>
            <threshold>-0.0141053600236773</threshold>
            <left_val>-0.9391688108444214</left_val>
            <right_val>0.0861196592450142</right_val></_></_>
        <_>
          <_>
            <feature>
              <rects>
                <_>
                  10 3 4 10 -1.</_>
                <_>
                  12 3 2 5 2.</_>
                <_>
                  10 8 2 5 2.</_></rects>
              <tilted>0</tilted></feature>
            <threshold>-3.7483889609575272e-003</threshold>
            <left_val>0.4132193028926849</left_val>
            <right_val>-0.2039460986852646</right_val></_></_></trees>
      <stage_threshold>-0.6897957921028137</stage_threshold>
      <parent>7</parent>
      <next>-1</next></_>
    <_>
      <trees>
        <_>
          <_>
            <feature>
              <rects>
                <_>
                  0 9 24 10 -1.</_>
                <_>
                  6 9 12 10 2.</_></rects>
              <tilted>0</tilted></feature>
            <threshold>0.2656733989715576</threshold>
            <left_val>-0.1874507963657379</left_val>
            <right_val>0.4969465136528015</right_val></_></_>
        <_>
          <_>
            <feature>
              <rects>
                <_>
                  15 4 3 9 -1.</_>
                <_>
                  15 7 3 3 3.</_></rects>
              <tilted>0</tilted></feature>
            <threshold>9.2354193329811096e-003</threshold>
            <left_val>-0.1324768960475922</left_val>
            <right_val>0.2386810034513474</right_val></_></_>
        <_>
          <_>
            <feature>
              <rects>
                <_>
                  0 10 15 6 -1.</_>
                <_>
                  5 10 5 6 3.</_></rects>
              <tilted>0</tilted></feature>
            <threshold>-0.0422628596425056</threshold>
            <left_val>0.6204311847686768</left_val>
            <right_val>-0.1182568967342377</right_val></_></_>
        <_>
          <_>
            <feature>
              <rects>
                <_>
                  3 8 18 12 -1.</_>
                <_>
                  12 8 9 6 2.</_>
                <_>
                  3 14 9 6 2.</_></rects>
              <tilted>0</tilted></feature>
            <threshold>0.0724329426884651</threshold>
            <left_val>0.1250261962413788</left_val>
            <right_val>-0.7287070751190186</right_val></_></_>
        <_>
          <_>
            <feature>
              <rects>
                <_>
                  1 1 20 22 -1.</_>
                <_>
                  1 1 10 11 2.</_>
                <_>
                  11 12 10 11 2.</_></rects>
              <tilted>0</tilted></feature>
            <threshold>0.1434855014085770</threshold>
            <left_val>0.1313332021236420</left_val>
            <right_val>-0.7603250145912170</right_val></_></_>
        <_>
          <_>
            <feature>
              <rects>
                <_>
                  17 5 2 6 -1.</_>
                <_>
                  17 7 2 2 3.</_></rects>
              <tilted>0</tilted></feature>
            <threshold>-7.3055881075561047e-003</threshold>
            <left_val>0.3528231084346771</left_val>
            <right_val>-0.0800988674163818</right_val></_></_>
        <_>
          <_>
            <feature>
              <rects>
                <_>
                  5 9 11 3 -1.</_>
                <_>
                  4 10 11 1 3.</_></rects>
              <tilted>1</tilted></feature>
            <threshold>5.0630671903491020e-003</threshold>
            <left_val>-0.2317281067371368</left_val>
            <right_val>0.3481613099575043</right_val></_></_>
        <_>
          <_>
            <feature>
              <rects>
                <_>
                  13 2 4 9 -1.</_>
                <_>
                  13 5 4 3 3.</_></rects>
              <tilted>0</tilted></feature>
            <threshold>0.0215970408171415</threshold>
            <left_val>-0.1337675005197525</left_val>
            <right_val>0.4100331068038940</right_val></_></_>
        <_>
          <_>
            <feature>
              <rects>
                <_>
                  5 5 2 6 -1.</_>
                <_>
                  5 7 2 2 3.</_></rects>
              <tilted>0</tilted></feature>
            <threshold>1.0606959694996476e-003</threshold>
            <left_val>-0.2578260004520416</left_val>
            <right_val>0.2742226123809815</right_val></_></_>
        <_>
          <_>
            <feature>
              <rects>
                <_>
                  18 1 4 8 -1.</_>
                <_>
                  18 3 4 4 2.</_></rects>
              <tilted>0</tilted></feature>
            <threshold>-0.0199137199670076</threshold>
            <left_val>-0.8661475181579590</left_val>
            <right_val>0.0279622599482536</right_val></_></_>
        <_>
          <_>
            <feature>
              <rects>
                <_>
                  7 4 3 6 -1.</_>
                <_>
                  7 6 3 2 3.</_></rects>
              <tilted>0</tilted></feature>
            <threshold>-4.1599520482122898e-003</threshold>
            <left_val>0.3856791853904724</left_val>
            <right_val>-0.1781983971595764</right_val></_></_>
        <_>
          <_>
            <feature>
              <rects>
                <_>
                  0 0 24 8 -1.</_>
                <_>
                  12 0 12 4 2.</_>
                <_>
                  0 4 12 4 2.</_></rects>
              <tilted>0</tilted></feature>
            <threshold>-0.0537672415375710</threshold>
            <left_val>-0.6541357040405273</left_val>
            <right_val>0.1013806983828545</right_val></_></_>
        <_>
          <_>
            <feature>
              <rects>
                <_>
                  3 2 6 6 -1.</_>
                <_>
                  3 2 3 3 2.</_>
                <_>
                  6 5 3 3 2.</_></rects>
              <tilted>0</tilted></feature>
            <threshold>8.0375829711556435e-003</threshold>
            <left_val>-0.1730584949254990</left_val>
            <right_val>0.4084590971469879</right_val></_></_>
        <_>
          <_>
            <feature>
              <rects>
                <_>
                  18 12 4 6 -1.</_>
                <_>
                  18 12 2 6 2.</_></rects>
              <tilted>1</tilted></feature>
            <threshold>0.0381256304681301</threshold>
            <left_val>-0.1213489994406700</left_val>
            <right_val>0.3485341072082520</right_val></_></_>
        <_>
          <_>
            <feature>
              <rects>
                <_>
                  6 12 6 4 -1.</_>
                <_>
                  6 12 6 2 2.</_></rects>
              <tilted>1</tilted></feature>
            <threshold>-8.7011009454727173e-003</threshold>
            <left_val>0.6705065965652466</left_val>
            <right_val>-0.1216157972812653</right_val></_></_>
        <_>
          <_>
            <feature>
              <rects>
                <_>
                  12 14 6 1 -1.</_>
                <_>
                  14 16 2 1 3.</_></rects>
              <tilted>1</tilted></feature>
            <threshold>0.0170982908457518</threshold>
            <left_val>0.0296592004597187</left_val>
            <right_val>-0.8436297774314880</right_val></_></_>
        <_>
          <_>
            <feature>
              <rects>
                <_>
                  12 14 1 6 -1.</_>
                <_>
                  10 16 1 2 3.</_></rects>
              <tilted>1</tilted></feature>
            <threshold>2.6260109152644873e-003</threshold>
            <left_val>-0.2518872022628784</left_val>
            <right_val>0.3075189888477325</right_val></_></_>
        <_>
          <_>
            <feature>
              <rects>
                <_>
                  9 0 9 4 -1.</_>
                <_>
                  9 1 9 2 2.</_></rects>
              <tilted>0</tilted></feature>
            <threshold>3.4308501053601503e-003</threshold>
            <left_val>-0.1914139986038208</left_val>
            <right_val>0.4590311944484711</right_val></_></_></trees>
      <stage_threshold>-0.8605598807334900</stage_threshold>
      <parent>8</parent>
      <next>-1</next></_>
    <_>
      <trees>
        <_>
          <_>
            <feature>
              <rects>
                <_>
                  2 0 20 21 -1.</_>
                <_>
                  2 7 20 7 3.</_></rects>
              <tilted>0</tilted></feature>
            <threshold>0.2532820105552673</threshold>
            <left_val>-0.3628321886062622</left_val>
            <right_val>0.2192478030920029</right_val></_></_>
        <_>
          <_>
            <feature>
              <rects>
                <_>
                  14 0 8 4 -1.</_>
                <_>
                  18 0 4 2 2.</_>
                <_>
                  14 2 4 2 2.</_></rects>
              <tilted>0</tilted></feature>
            <threshold>-5.2941958419978619e-003</threshold>
            <left_val>0.3509592115879059</left_val>
            <right_val>-0.1293946057558060</right_val></_></_>
        <_>
          <_>
            <feature>
              <rects>
                <_>
                  1 5 3 6 -1.</_>
                <_>
                  1 8 3 3 2.</_></rects>
              <tilted>0</tilted></feature>
            <threshold>0.0185444001108408</threshold>
            <left_val>0.0793776288628578</left_val>
            <right_val>-0.8645758032798767</right_val></_></_>
        <_>
          <_>
            <feature>
              <rects>
                <_>
                  19 18 2 3 -1.</_>
                <_>
                  19 19 2 1 3.</_></rects>
              <tilted>0</tilted></feature>
            <threshold>7.5099978130310774e-004</threshold>
            <left_val>0.0716410726308823</left_val>
            <right_val>-0.2793906033039093</right_val></_></_>
        <_>
          <_>
            <feature>
              <rects>
                <_>
                  1 0 2 6 -1.</_>
                <_>
                  1 0 1 3 2.</_>
                <_>
                  2 3 1 3 2.</_></rects>
              <tilted>0</tilted></feature>
            <threshold>1.2111909454688430e-003</threshold>
            <left_val>-0.1615417003631592</left_val>
            <right_val>0.3793196082115173</right_val></_></_>
        <_>
          <_>
            <feature>
              <rects>
                <_>
                  14 12 6 6 -1.</_>
                <_>
                  14 14 6 2 3.</_></rects>
              <tilted>0</tilted></feature>
            <threshold>0.0294530205428600</threshold>
            <left_val>0.0395272187888622</left_val>
            <right_val>-0.9999786019325256</right_val></_></_>
        <_>
          <_>
            <feature>
              <rects>
                <_>
                  2 17 20 5 -1.</_>
                <_>
                  7 17 10 5 2.</_></rects>
              <tilted>0</tilted></feature>
            <threshold>-0.0797123536467552</threshold>
            <left_val>0.6121093034744263</left_val>
            <right_val>-0.1010019034147263</right_val></_></_>
        <_>
          <_>
            <feature>
              <rects>
                <_>
                  3 17 18 3 -1.</_>
                <_>
                  9 17 6 3 3.</_></rects>
              <tilted>0</tilted></feature>
            <threshold>0.0471452400088310</threshold>
            <left_val>-0.1780903935432434</left_val>
            <right_val>0.4225201904773712</right_val></_></_>
        <_>
          <_>
            <feature>
              <rects>
                <_>
                  3 2 4 6 -1.</_>
                <_>
                  4 2 2 6 2.</_></rects>
              <tilted>0</tilted></feature>
            <threshold>7.3262082878500223e-004</threshold>
            <left_val>-0.2424768060445786</left_val>
            <right_val>0.2574093937873840</right_val></_></_>
        <_>
          <_>
            <feature>
              <rects>
                <_>
                  17 17 1 3 -1.</_>
                <_>
                  16 18 1 1 3.</_></rects>
              <tilted>1</tilted></feature>
            <threshold>2.8958460316061974e-003</threshold>
            <left_val>0.0729311332106590</left_val>
            <right_val>-0.7454630136489868</right_val></_></_>
        <_>
          <_>
            <feature>
              <rects>
                <_>
                  7 17 3 1 -1.</_>
                <_>
                  8 18 1 1 3.</_></rects>
              <tilted>1</tilted></feature>
            <threshold>-8.8516937103122473e-004</threshold>
            <left_val>-0.4970720112323761</left_val>
            <right_val>0.1180861964821816</right_val></_></_>
        <_>
          <_>
            <feature>
              <rects>
                <_>
                  4 16 16 8 -1.</_>
                <_>
                  4 18 16 4 2.</_></rects>
              <tilted>0</tilted></feature>
            <threshold>-8.6088590323925018e-003</threshold>
            <left_val>0.2102320939302445</left_val>
            <right_val>-0.3185550868511200</right_val></_></_>
        <_>
          <_>
            <feature>
              <rects>
                <_>
                  4 12 6 6 -1.</_>
                <_>
                  4 14 6 2 3.</_></rects>
              <tilted>0</tilted></feature>
            <threshold>0.0163365006446838</threshold>
            <left_val>0.0693666487932205</left_val>
            <right_val>-0.8980693221092224</right_val></_></_>
        <_>
          <_>
            <feature>
              <rects>
                <_>
                  13 20 1 2 -1.</_>
                <_>
                  13 20 1 1 2.</_></rects>
              <tilted>1</tilted></feature>
            <threshold>2.0627479534596205e-003</threshold>
            <left_val>-0.1031261980533600</left_val>
            <right_val>0.2849301993846893</right_val></_></_>
        <_>
          <_>
            <feature>
              <rects>
                <_>
                  10 9 1 8 -1.</_>
                <_>
                  10 13 1 4 2.</_></rects>
              <tilted>0</tilted></feature>
            <threshold>-3.7456699647009373e-004</threshold>
            <left_val>0.1699254065752029</left_val>
            <right_val>-0.3928093016147614</right_val></_></_>
        <_>
          <_>
            <feature>
              <rects>
                <_>
                  17 10 6 14 -1.</_>
                <_>
                  20 10 3 7 2.</_>
                <_>
                  17 17 3 7 2.</_></rects>
              <tilted>0</tilted></feature>
            <threshold>-0.0277381408959627</threshold>
            <left_val>0.4001443982124329</left_val>
            <right_val>-0.2039131969213486</right_val></_></_>
        <_>
          <_>
            <feature>
              <rects>
                <_>
                  1 10 6 14 -1.</_>
                <_>
                  1 10 3 7 2.</_>
                <_>
                  4 17 3 7 2.</_></rects>
              <tilted>0</tilted></feature>
            <threshold>9.8137483000755310e-003</threshold>
            <left_val>-0.1517958939075470</left_val>
            <right_val>0.5638483166694641</right_val></_></_>
        <_>
          <_>
            <feature>
              <rects>
                <_>
                  15 17 8 6 -1.</_>
                <_>
                  17 17 4 6 2.</_></rects>
              <tilted>0</tilted></feature>
            <threshold>-7.4123768135905266e-003</threshold>
            <left_val>0.2098103016614914</left_val>
            <right_val>-0.0988604128360748</right_val></_></_>
        <_>
          <_>
            <feature>
              <rects>
                <_>
                  1 17 8 6 -1.</_>
                <_>
                  3 17 4 6 2.</_></rects>
              <tilted>0</tilted></feature>
            <threshold>-5.6638270616531372e-003</threshold>
            <left_val>0.2903502881526947</left_val>
            <right_val>-0.2707383036613464</right_val></_></_>
        <_>
          <_>
            <feature>
              <rects>
                <_>
                  17 18 2 2 -1.</_>
                <_>
                  17 18 2 1 2.</_></rects>
              <tilted>1</tilted></feature>
            <threshold>-2.0755750592797995e-003</threshold>
            <left_val>-0.5120732784271240</left_val>
            <right_val>0.0650941133499146</right_val></_></_>
        <_>
          <_>
            <feature>
              <rects>
                <_>
                  7 18 2 2 -1.</_>
                <_>
                  7 18 1 2 2.</_></rects>
              <tilted>1</tilted></feature>
            <threshold>-7.4544467497617006e-004</threshold>
            <left_val>-0.4643866121768951</left_val>
            <right_val>0.1810311973094940</right_val></_></_>
        <_>
          <_>
            <feature>
              <rects>
                <_>
                  15 20 5 3 -1.</_>
                <_>
                  15 21 5 1 3.</_></rects>
              <tilted>0</tilted></feature>
            <threshold>-0.0109248301014304</threshold>
            <left_val>-1.</left_val>
            <right_val>0.0168001092970371</right_val></_></_>
        <_>
          <_>
            <feature>
              <rects>
                <_>
                  1 21 3 2 -1.</_>
                <_>
                  2 21 1 2 3.</_></rects>
              <tilted>0</tilted></feature>
            <threshold>1.8389240140095353e-003</threshold>
            <left_val>0.0791261494159698</left_val>
            <right_val>-0.7502943873405457</right_val></_></_>
        <_>
          <_>
            <feature>
              <rects>
                <_>
                  17 2 2 3 -1.</_>
                <_>
                  16 3 2 1 3.</_></rects>
              <tilted>1</tilted></feature>
            <threshold>4.9049798399209976e-003</threshold>
            <left_val>-0.0734677165746689</left_val>
            <right_val>0.4284993112087250</right_val></_></_>
        <_>
          <_>
            <feature>
              <rects>
                <_>
                  4 2 12 9 -1.</_>
                <_>
                  7 2 6 9 2.</_></rects>
              <tilted>0</tilted></feature>
            <threshold>0.0126425502821803</threshold>
            <left_val>-0.2555482983589172</left_val>
            <right_val>0.2791492938995361</right_val></_></_></trees>
      <stage_threshold>-0.7916588187217712</stage_threshold>
      <parent>9</parent>
      <next>-1</next></_>
    <_>
      <trees>
        <_>
          <_>
            <feature>
              <rects>
                <_>
                  2 10 11 2 -1.</_>
                <_>
                  2 10 11 1 2.</_></rects>
              <tilted>1</tilted></feature>
            <threshold>0.0218441896140575</threshold>
            <left_val>-0.1362506002187729</left_val>
            <right_val>0.5221328139305115</right_val></_></_>
        <_>
          <_>
            <feature>
              <rects>
                <_>
                  22 11 1 3 -1.</_>
                <_>
                  22 12 1 1 3.</_></rects>
              <tilted>0</tilted></feature>
            <threshold>-1.4484330313280225e-003</threshold>
            <left_val>-0.7154763936996460</left_val>
            <right_val>0.0420515686273575</right_val></_></_>
        <_>
          <_>
            <feature>
              <rects>
                <_>
                  1 11 1 3 -1.</_>
                <_>
                  1 12 1 1 3.</_></rects>
              <tilted>0</tilted></feature>
            <threshold>2.5055379956029356e-004</threshold>
            <left_val>0.1584511995315552</left_val>
            <right_val>-0.4280630052089691</right_val></_></_>
        <_>
          <_>
            <feature>
              <rects>
                <_>
                  20 9 4 10 -1.</_>
                <_>
                  22 9 2 5 2.</_>
                <_>
                  20 14 2 5 2.</_></rects>
              <tilted>0</tilted></feature>
            <threshold>-0.0181808099150658</threshold>
            <left_val>0.3932181894779205</left_val>
            <right_val>-0.0642289817333221</right_val></_></_>
        <_>
          <_>
            <feature>
              <rects>
                <_>
                  0 9 4 10 -1.</_>
                <_>
                  0 9 2 5 2.</_>
                <_>
                  2 14 2 5 2.</_></rects>
              <tilted>0</tilted></feature>
            <threshold>0.0106318602338433</threshold>
            <left_val>-0.1135981008410454</left_val>
            <right_val>0.5304663181304932</right_val></_></_>
        <_>
          <_>
            <feature>
              <rects>
                <_>
                  4 3 17 12 -1.</_>
                <_>
                  4 7 17 4 3.</_></rects>
              <tilted>0</tilted></feature>
            <threshold>0.1223367974162102</threshold>
            <left_val>-0.1635673046112061</left_val>
            <right_val>0.3684105873107910</right_val></_></_>
        <_>
          <_>
            <feature>
              <rects>
                <_>
                  12 5 2 3 -1.</_>
                <_>
                  12 5 1 3 2.</_></rects>
              <tilted>1</tilted></feature>
            <threshold>7.8689178917557001e-004</threshold>
            <left_val>-0.1774722039699554</left_val>
            <right_val>0.3448534905910492</right_val></_></_>
        <_>
          <_>
            <feature>
              <rects>
                <_>
                  17 0 2 6 -1.</_>
                <_>
                  17 3 2 3 2.</_></rects>
              <tilted>0</tilted></feature>
            <threshold>1.7362840007990599e-003</threshold>
            <left_val>-0.1204188987612724</left_val>
            <right_val>0.1651256978511810</right_val></_></_>
        <_>
          <_>
            <feature>
              <rects>
                <_>
                  8 3 3 8 -1.</_>
                <_>
                  8 5 3 4 2.</_></rects>
              <tilted>0</tilted></feature>
            <threshold>-5.1802247762680054e-003</threshold>
            <left_val>0.4229607880115509</left_val>
            <right_val>-0.1415794044733048</right_val></_></_>
        <_>
          <_>
            <feature>
              <rects>
                <_>
                  16 0 5 6 -1.</_>
                <_>
                  16 3 5 3 2.</_></rects>
              <tilted>0</tilted></feature>
            <threshold>0.0344295017421246</threshold>
            <left_val>0.0324977487325668</left_val>
            <right_val>-0.3109996020793915</right_val></_></_>
        <_>
          <_>
            <feature>
              <rects>
                <_>
                  5 0 2 6 -1.</_>
                <_>
                  5 3 2 3 2.</_></rects>
              <tilted>0</tilted></feature>
            <threshold>2.3397260811179876e-003</threshold>
            <left_val>-0.3084188103675842</left_val>
            <right_val>0.2621147930622101</right_val></_></_>
        <_>
          <_>
            <feature>
              <rects>
                <_>
                  11 0 6 8 -1.</_>
                <_>
                  11 2 6 4 2.</_></rects>
              <tilted>0</tilted></feature>
            <threshold>-6.2674931250512600e-003</threshold>
            <left_val>0.1901572942733765</left_val>
            <right_val>-0.1815159022808075</right_val></_></_>
        <_>
          <_>
            <feature>
              <rects>
                <_>
                  5 3 12 8 -1.</_>
                <_>
                  5 3 6 4 2.</_>
                <_>
                  11 7 6 4 2.</_></rects>
              <tilted>0</tilted></feature>
            <threshold>0.0315985195338726</threshold>
            <left_val>0.0899126082658768</left_val>
            <right_val>-0.7861453890800476</right_val></_></_>
        <_>
          <_>
            <feature>
              <rects>
                <_>
                  9 10 12 3 -1.</_>
                <_>
                  13 11 4 1 9.</_></rects>
              <tilted>0</tilted></feature>
            <threshold>-0.0383763797581196</threshold>
            <left_val>-0.4895564019680023</left_val>
            <right_val>3.6022230051457882e-003</right_val></_></_>
        <_>
          <_>
            <feature>
              <rects>
                <_>
                  0 1 5 4 -1.</_>
                <_>
                  0 2 5 2 2.</_></rects>
              <tilted>0</tilted></feature>
            <threshold>-5.9485249221324921e-003</threshold>
            <left_val>-0.9059435129165649</left_val>
            <right_val>0.0595880709588528</right_val></_></_>
        <_>
          <_>
            <feature>
              <rects>
                <_>
                  23 15 1 2 -1.</_>
                <_>
                  23 16 1 1 2.</_></rects>
              <tilted>0</tilted></feature>
            <threshold>1.2718909420073032e-003</threshold>
            <left_val>3.5307179205119610e-003</left_val>
            <right_val>-0.7683473825454712</right_val></_></_>
        <_>
          <_>
            <feature>
              <rects>
                <_>
                  12 16 6 1 -1.</_>
                <_>
                  12 16 3 1 2.</_></rects>
              <tilted>1</tilted></feature>
            <threshold>-8.6757633835077286e-003</threshold>
            <left_val>0.7646399140357971</left_val>
            <right_val>-0.0836435928940773</right_val></_></_>
        <_>
          <_>
            <feature>
              <rects>
                <_>
                  15 18 2 3 -1.</_>
                <_>
                  14 19 2 1 3.</_></rects>
              <tilted>1</tilted></feature>
            <threshold>3.2573558855801821e-003</threshold>
            <left_val>0.0724149569869041</left_val>
            <right_val>-0.3662951886653900</right_val></_></_>
        <_>
          <_>
            <feature>
              <rects>
                <_>
                  2 19 12 4 -1.</_>
                <_>
                  2 19 6 2 2.</_>
                <_>
                  8 21 6 2 2.</_></rects>
              <tilted>0</tilted></feature>
            <threshold>-0.0118070803582668</threshold>
            <left_val>0.3577820956707001</left_val>
            <right_val>-0.2120705991983414</right_val></_></_>
        <_>
          <_>
            <feature>
              <rects>
                <_>
                  16 14 2 4 -1.</_>
                <_>
                  15 15 2 2 2.</_></rects>
              <tilted>1</tilted></feature>
            <threshold>-5.1948479376733303e-003</threshold>
            <left_val>-0.9442489743232727</left_val>
            <right_val>0.0471068993210793</right_val></_></_>
        <_>
          <_>
            <feature>
              <rects>
                <_>
                  9 13 3 4 -1.</_>
                <_>
                  10 14 1 4 3.</_></rects>
              <tilted>1</tilted></feature>
            <threshold>5.4484340362250805e-003</threshold>
            <left_val>0.0657147169113159</left_val>
            <right_val>-0.6947050094604492</right_val></_></_>
        <_>
          <_>
            <feature>
              <rects>
                <_>
                  10 2 4 13 -1.</_>
                <_>
                  11 2 2 13 2.</_></rects>
              <tilted>0</tilted></feature>
            <threshold>5.0386739894747734e-003</threshold>
            <left_val>-0.1578419953584671</left_val>
            <right_val>0.3877893984317780</right_val></_></_></trees>
      <stage_threshold>-0.7211953997612000</stage_threshold>
      <parent>10</parent>
      <next>-1</next></_>
    <_>
      <trees>
        <_>
          <_>
            <feature>
              <rects>
                <_>
                  0 13 6 6 -1.</_>
                <_>
                  0 13 3 3 2.</_>
                <_>
                  3 16 3 3 2.</_></rects>
              <tilted>0</tilted></feature>
            <threshold>-0.0106336995959282</threshold>
            <left_val>0.3846158087253571</left_val>
            <right_val>-0.1674630939960480</right_val></_></_>
        <_>
          <_>
            <feature>
              <rects>
                <_>
                  14 0 8 4 -1.</_>
                <_>
                  18 0 4 2 2.</_>
                <_>
                  14 2 4 2 2.</_></rects>
              <tilted>0</tilted></feature>
            <threshold>-5.2972231060266495e-003</threshold>
            <left_val>0.2106079012155533</left_val>
            <right_val>-0.0745083168148994</right_val></_></_>
        <_>
          <_>
            <feature>
              <rects>
                <_>
                  3 21 5 3 -1.</_>
                <_>
                  3 22 5 1 3.</_></rects>
              <tilted>0</tilted></feature>
            <threshold>4.7548362053930759e-003</threshold>
            <left_val>0.0595298483967781</left_val>
            <right_val>-0.8779389262199402</right_val></_></_>
        <_>
          <_>
            <feature>
              <rects>
                <_>
                  14 0 8 4 -1.</_>
                <_>
                  18 0 4 2 2.</_>
                <_>
                  14 2 4 2 2.</_></rects>
              <tilted>0</tilted></feature>
            <threshold>4.3444382026791573e-003</threshold>
            <left_val>-0.0474859699606895</left_val>
            <right_val>0.1645314991474152</right_val></_></_>
        <_>
          <_>
            <feature>
              <rects>
                <_>
                  2 0 8 4 -1.</_>
                <_>
                  2 0 4 2 2.</_>
                <_>
                  6 2 4 2 2.</_></rects>
              <tilted>0</tilted></feature>
            <threshold>-3.3951699733734131e-003</threshold>
            <left_val>0.3179999887943268</left_val>
            <right_val>-0.1790072023868561</right_val></_></_>
        <_>
          <_>
            <feature>
              <rects>
                <_>
                  0 0 24 4 -1.</_>
                <_>
                  12 0 12 2 2.</_>
                <_>
                  0 2 12 2 2.</_></rects>
              <tilted>0</tilted></feature>
            <threshold>0.0204833596944809</threshold>
            <left_val>0.1046217009425163</left_val>
            <right_val>-0.6105986237525940</right_val></_></_>
        <_>
          <_>
            <feature>
              <rects>
                <_>
                  8 1 6 8 -1.</_>
                <_>
                  10 1 2 8 3.</_></rects>
              <tilted>0</tilted></feature>
            <threshold>-3.8999849930405617e-003</threshold>
            <left_val>0.3788456022739410</left_val>
            <right_val>-0.1391967982053757</right_val></_></_>
        <_>
          <_>
            <feature>
              <rects>
                <_>
                  12 2 4 1 -1.</_>
                <_>
                  12 2 2 1 2.</_></rects>
              <tilted>0</tilted></feature>
            <threshold>-5.0691319629549980e-003</threshold>
            <left_val>-1.</left_val>
            <right_val>0.0282878205180168</right_val></_></_>
        <_>
          <_>
            <feature>
              <rects>
                <_>
                  8 2 4 1 -1.</_>
                <_>
                  10 2 2 1 2.</_></rects>
              <tilted>0</tilted></feature>
            <threshold>6.0438847867771983e-004</threshold>
            <left_val>-0.2351085990667343</left_val>
            <right_val>0.2392390966415405</right_val></_></_>
        <_>
          <_>
            <feature>
              <rects>
                <_>
                  10 1 8 6 -1.</_>
                <_>
                  10 1 4 6 2.</_></rects>
              <tilted>0</tilted></feature>
            <threshold>0.0579438917338848</threshold>
            <left_val>0.0131301898509264</left_val>
            <right_val>-0.9107192158699036</right_val></_></_>
        <_>
          <_>
            <feature>
              <rects>
                <_>
                  6 2 10 5 -1.</_>
                <_>
                  11 2 5 5 2.</_></rects>
              <tilted>0</tilted></feature>
            <threshold>0.0395801998674870</threshold>
            <left_val>0.0893450975418091</left_val>
            <right_val>-0.6851999759674072</right_val></_></_>
        <_>
          <_>
            <feature>
              <rects>
                <_>
                  16 12 1 3 -1.</_>
                <_>
                  16 13 1 1 3.</_></rects>
              <tilted>0</tilted></feature>
            <threshold>-1.4769640074518975e-005</threshold>
            <left_val>0.0855077430605888</left_val>
            <right_val>-0.0964026674628258</right_val></_></_>
        <_>
          <_>
            <feature>
              <rects>
                <_>
                  7 12 1 3 -1.</_>
                <_>
                  7 13 1 1 3.</_></rects>
              <tilted>0</tilted></feature>
            <threshold>-1.1964480108872522e-005</threshold>
            <left_val>0.2638111114501953</left_val>
            <right_val>-0.2114495038986206</right_val></_></_>
        <_>
          <_>
            <feature>
              <rects>
                <_>
                  16 3 1 16 -1.</_>
                <_>
                  12 7 1 8 2.</_></rects>
              <tilted>1</tilted></feature>
            <threshold>-0.0576413385570049</threshold>
            <left_val>-1.</left_val>
            <right_val>-2.3098550736904144e-003</right_val></_></_>
        <_>
          <_>
            <feature>
              <rects>
                <_>
                  0 9 13 9 -1.</_>
                <_>
                  0 12 13 3 3.</_></rects>
              <tilted>0</tilted></feature>
            <threshold>-0.0296395495533943</threshold>
            <left_val>-0.7806395888328552</left_val>
            <right_val>0.0689687505364418</right_val></_></_>
        <_>
          <_>
            <feature>
              <rects>
                <_>
                  20 19 2 2 -1.</_>
                <_>
                  20 19 1 2 2.</_></rects>
              <tilted>1</tilted></feature>
            <threshold>8.3714483480434865e-005</threshold>
            <left_val>0.1465627998113632</left_val>
            <right_val>-0.1733185946941376</right_val></_></_>
        <_>
          <_>
            <feature>
              <rects>
                <_>
                  4 9 16 9 -1.</_>
                <_>
                  12 9 8 9 2.</_></rects>
              <tilted>0</tilted></feature>
            <threshold>0.0529882013797760</threshold>
            <left_val>-0.1541519016027451</left_val>
            <right_val>0.3534432947635651</right_val></_></_>
        <_>
          <_>
            <feature>
              <rects>
                <_>
                  16 3 2 3 -1.</_>
                <_>
                  16 4 2 1 3.</_></rects>
              <tilted>0</tilted></feature>
            <threshold>7.3330971645191312e-004</threshold>
            <left_val>-0.0570395402610302</left_val>
            <right_val>0.1420035064220429</right_val></_></_>
        <_>
          <_>
            <feature>
              <rects>
                <_>
                  3 18 2 3 -1.</_>
                <_>
                  3 19 2 1 3.</_></rects>
              <tilted>0</tilted></feature>
            <threshold>6.8097212351858616e-004</threshold>
            <left_val>0.1139701977372170</left_val>
            <right_val>-0.5062531232833862</right_val></_></_>
        <_>
          <_>
            <feature>
              <rects>
                <_>
                  15 14 1 2 -1.</_>
                <_>
                  15 14 1 1 2.</_></rects>
              <tilted>1</tilted></feature>
            <threshold>1.0240019764751196e-003</threshold>
            <left_val>0.0550376400351524</left_val>
            <right_val>-0.2607972919940949</right_val></_></_>
        <_>
          <_>
            <feature>
              <rects>
                <_>
                  5 15 12 2 -1.</_>
                <_>
                  5 15 6 1 2.</_>
                <_>
                  11 16 6 1 2.</_></rects>
              <tilted>0</tilted></feature>
            <threshold>-1.2892710510641336e-003</threshold>
            <left_val>0.3568198084831238</left_val>
            <right_val>-0.1585785001516342</right_val></_></_>
        <_>
          <_>
            <feature>
              <rects>
                <_>
                  15 14 9 3 -1.</_>
                <_>
                  15 15 9 1 3.</_></rects>
              <tilted>0</tilted></feature>
            <threshold>8.4789004176855087e-003</threshold>
            <left_val>0.0207663308829069</left_val>
            <right_val>-0.7414311766624451</right_val></_></_>
        <_>
          <_>
            <feature>
              <rects>
                <_>
                  0 14 9 3 -1.</_>
                <_>
                  0 15 9 1 3.</_></rects>
              <tilted>0</tilted></feature>
            <threshold>-1.5468649799004197e-003</threshold>
            <left_val>-0.4581505954265595</left_val>
            <right_val>0.1262889057397842</right_val></_></_>
        <_>
          <_>
            <feature>
              <rects>
                <_>
                  15 5 2 3 -1.</_>
                <_>
                  15 6 2 1 3.</_></rects>
              <tilted>0</tilted></feature>
            <threshold>2.1754840854555368e-003</threshold>
            <left_val>-0.0524947009980679</left_val>
            <right_val>0.2519769966602325</right_val></_></_></trees>
      <stage_threshold>-0.6355658769607544</stage_threshold>
      <parent>11</parent>
      <next>-1</next></_>
    <_>
      <trees>
        <_>
          <_>
            <feature>
              <rects>
                <_>
                  8 3 16 1 -1.</_>
                <_>
                  12 7 8 1 2.</_></rects>
              <tilted>1</tilted></feature>
            <threshold>0.0364140011370182</threshold>
            <left_val>-0.1524330973625183</left_val>
            <right_val>0.3491682112216950</right_val></_></_>
        <_>
          <_>
            <feature>
              <rects>
                <_>
                  14 5 7 6 -1.</_>
                <_>
                  14 5 7 3 2.</_></rects>
              <tilted>1</tilted></feature>
            <threshold>0.0918981134891510</threshold>
            <left_val>8.4150694310665131e-003</left_val>
            <right_val>-0.9999880194664002</right_val></_></_>
        <_>
          <_>
            <feature>
              <rects>
                <_>
                  10 5 6 7 -1.</_>
                <_>
                  10 5 3 7 2.</_></rects>
              <tilted>1</tilted></feature>
            <threshold>1.4151709619909525e-003</threshold>
            <left_val>-0.1969524025917053</left_val>
            <right_val>0.2775743901729584</right_val></_></_>
        <_>
          <_>
            <feature>
              <rects>
                <_>
                  20 12 3 9 -1.</_>
                <_>
                  21 13 1 9 3.</_></rects>
              <tilted>1</tilted></feature>
            <threshold>9.8775941878557205e-003</threshold>
            <left_val>-0.0999929234385490</left_val>
            <right_val>0.4913345873355866</right_val></_></_>
        <_>
          <_>
            <feature>
              <rects>
                <_>
                  4 12 9 3 -1.</_>
                <_>
                  3 13 9 1 3.</_></rects>
              <tilted>1</tilted></feature>
            <threshold>-0.0141585702076554</threshold>
            <left_val>0.4653283953666687</left_val>
            <right_val>-0.1377263069152832</right_val></_></_>
        <_>
          <_>
            <feature>
              <rects>
                <_>
                  15 17 4 4 -1.</_>
                <_>
                  17 17 2 2 2.</_>
                <_>
                  15 19 2 2 2.</_></rects>
              <tilted>0</tilted></feature>
            <threshold>-1.8157400190830231e-003</threshold>
            <left_val>0.2611241042613983</left_val>
            <right_val>-0.1397738009691238</right_val></_></_>
        <_>
          <_>
            <feature>
              <rects>
                <_>
                  5 12 9 3 -1.</_>
                <_>
                  4 13 9 1 3.</_></rects>
              <tilted>1</tilted></feature>
            <threshold>6.0196579433977604e-003</threshold>
            <left_val>-0.1659809052944183</left_val>
            <right_val>0.3750306069850922</right_val></_></_>
        <_>
          <_>
            <feature>
              <rects>
                <_>
                  16 5 3 3 -1.</_>
                <_>
                  17 5 1 3 3.</_></rects>
              <tilted>0</tilted></feature>
            <threshold>4.3622017838060856e-003</threshold>
            <left_val>0.0805020928382874</left_val>
            <right_val>-0.8285142779350281</right_val></_></_>
        <_>
          <_>
            <feature>
              <rects>
                <_>
                  8 14 4 3 -1.</_>
                <_>
                  7 15 4 1 3.</_></rects>
              <tilted>1</tilted></feature>
            <threshold>-5.2104857750236988e-003</threshold>
            <left_val>0.4448846876621246</left_val>
            <right_val>-0.1595012992620468</right_val></_></_>
        <_>
          <_>
            <feature>
              <rects>
                <_>
                  16 5 3 3 -1.</_>
                <_>
                  17 5 1 3 3.</_></rects>
              <tilted>0</tilted></feature>
            <threshold>-9.7542190924286842e-003</threshold>
            <left_val>-1.</left_val>
            <right_val>0.0526634417474270</right_val></_></_>
        <_>
          <_>
            <feature>
              <rects>
                <_>
                  5 5 3 3 -1.</_>
                <_>
                  6 5 1 3 3.</_></rects>
              <tilted>0</tilted></feature>
            <threshold>-3.9231870323419571e-003</threshold>
            <left_val>-1.</left_val>
            <right_val>0.0580277889966965</right_val></_></_>
        <_>
          <_>
            <feature>
              <rects>
                <_>
                  18 6 4 13 -1.</_>
                <_>
                  19 6 2 13 2.</_></rects>
              <tilted>0</tilted></feature>
            <threshold>4.1818050667643547e-003</threshold>
            <left_val>-0.1701688021421433</left_val>
            <right_val>0.2147362977266312</right_val></_></_>
        <_>
          <_>
            <feature>
              <rects>
                <_>
                  2 6 4 13 -1.</_>
                <_>
                  3 6 2 13 2.</_></rects>
              <tilted>0</tilted></feature>
            <threshold>-0.0123764201998711</threshold>
            <left_val>0.5440939068794251</left_val>
            <right_val>-0.0801937207579613</right_val></_></_>
        <_>
          <_>
            <feature>
              <rects>
                <_>
                  17 7 6 1 -1.</_>
                <_>
                  19 7 2 1 3.</_></rects>
              <tilted>0</tilted></feature>
            <threshold>-4.1304109618067741e-003</threshold>
            <left_val>0.3560437858104706</left_val>
            <right_val>-0.0690670013427734</right_val></_></_>
        <_>
          <_>
            <feature>
              <rects>
                <_>
                  1 7 6 1 -1.</_>
                <_>
                  3 7 2 1 3.</_></rects>
              <tilted>0</tilted></feature>
            <threshold>1.4516629744321108e-003</threshold>
            <left_val>-0.2270026057958603</left_val>
            <right_val>0.3269222080707550</right_val></_></_>
        <_>
          <_>
            <feature>
              <rects>
                <_>
                  14 0 10 10 -1.</_>
                <_>
                  14 5 10 5 2.</_></rects>
              <tilted>0</tilted></feature>
            <threshold>0.0203729905188084</threshold>
            <left_val>-0.2216574996709824</left_val>
            <right_val>0.1164676994085312</right_val></_></_>
        <_>
          <_>
            <feature>
              <rects>
                <_>
                  6 3 6 2 -1.</_>
                <_>
                  6 3 3 1 2.</_>
                <_>
                  9 4 3 1 2.</_></rects>
              <tilted>0</tilted></feature>
            <threshold>-1.9372249953448772e-003</threshold>
            <left_val>0.4568746984004974</left_val>
            <right_val>-0.1169807016849518</right_val></_></_>
        <_>
          <_>
            <feature>
              <rects>
                <_>
                  20 18 3 6 -1.</_>
                <_>
                  21 20 1 2 9.</_></rects>
              <tilted>0</tilted></feature>
            <threshold>-0.0113306399434805</threshold>
            <left_val>-0.3309339880943298</left_val>
            <right_val>0.0433859601616859</right_val></_></_>
        <_>
          <_>
            <feature>
              <rects>
                <_>
                  7 3 8 1 -1.</_>
                <_>
                  9 3 4 1 2.</_></rects>
              <tilted>0</tilted></feature>
            <threshold>-7.3660531779751182e-004</threshold>
            <left_val>0.3029817938804627</left_val>
            <right_val>-0.1741563975811005</right_val></_></_>
        <_>
          <_>
            <feature>
              <rects>
                <_>
                  13 3 3 11 -1.</_>
                <_>
                  14 3 1 11 3.</_></rects>
              <tilted>0</tilted></feature>
            <threshold>3.8866549730300903e-003</threshold>
            <left_val>0.0692816674709320</left_val>
            <right_val>-0.4435023963451386</right_val></_></_>
        <_>
          <_>
            <feature>
              <rects>
                <_>
                  1 1 1 3 -1.</_>
                <_>
                  1 2 1 1 3.</_></rects>
              <tilted>0</tilted></feature>
            <threshold>5.0856522284448147e-004</threshold>
            <left_val>0.1056789979338646</left_val>
            <right_val>-0.4888781905174255</right_val></_></_></trees>
      <stage_threshold>-0.6754825711250305</stage_threshold>
      <parent>12</parent>
      <next>-1</next></_>
    <_>
      <trees>
        <_>
          <_>
            <feature>
              <rects>
                <_>
                  12 12 4 7 -1.</_>
                <_>
                  12 12 2 7 2.</_></rects>
              <tilted>1</tilted></feature>
            <threshold>-0.0139841800555587</threshold>
            <left_val>-0.9162790775299072</left_val>
            <right_val>0.0581973306834698</right_val></_></_>
        <_>
          <_>
            <feature>
              <rects>
                <_>
                  0 7 24 10 -1.</_>
                <_>
                  6 7 12 10 2.</_></rects>
              <tilted>0</tilted></feature>
            <threshold>0.2655602991580963</threshold>
            <left_val>-0.1481731981039047</left_val>
            <right_val>0.3701162934303284</right_val></_></_>
        <_>
          <_>
            <feature>
              <rects>
                <_>
                  10 3 4 2 -1.</_>
                <_>
                  12 3 2 2 2.</_></rects>
              <tilted>0</tilted></feature>
            <threshold>-1.2824520235881209e-003</threshold>
            <left_val>0.3261330127716065</left_val>
            <right_val>-0.1579218059778214</right_val></_></_>
        <_>
          <_>
            <feature>
              <rects>
                <_>
                  16 14 1 10 -1.</_>
                <_>
                  16 19 1 5 2.</_></rects>
              <tilted>0</tilted></feature>
            <threshold>7.9180467873811722e-003</threshold>
            <left_val>-0.0534055009484291</left_val>
            <right_val>0.5185859799385071</right_val></_></_>
        <_>
          <_>
            <feature>
              <rects>
                <_>
                  6 1 9 7 -1.</_>
                <_>
                  9 1 3 7 3.</_></rects>
              <tilted>0</tilted></feature>
            <threshold>-5.7116271927952766e-003</threshold>
            <left_val>0.2934075891971588</left_val>
            <right_val>-0.1617581993341446</right_val></_></_>
        <_>
          <_>
            <feature>
              <rects>
                <_>
                  9 0 8 13 -1.</_>
                <_>
                  11 0 4 13 2.</_></rects>
              <tilted>0</tilted></feature>
            <threshold>-0.0521528199315071</threshold>
            <left_val>-1.</left_val>
            <right_val>0.0200674403458834</right_val></_></_>
        <_>
          <_>
            <feature>
              <rects>
                <_>
                  7 0 8 13 -1.</_>
                <_>
                  9 0 4 13 2.</_></rects>
              <tilted>0</tilted></feature>
            <threshold>0.0159029904752970</threshold>
            <left_val>-0.1746723949909210</left_val>
            <right_val>0.2796837091445923</right_val></_></_>
        <_>
          <_>
            <feature>
              <rects>
                <_>
                  14 16 2 2 -1.</_>
                <_>
                  14 16 2 1 2.</_></rects>
              <tilted>1</tilted></feature>
            <threshold>3.2166659366339445e-003</threshold>
            <left_val>0.0590549297630787</left_val>
            <right_val>-0.3526552915573120</right_val></_></_>
        <_>
          <_>
            <feature>
              <rects>
                <_>
                  10 9 12 2 -1.</_>
                <_>
                  14 13 4 2 3.</_></rects>
              <tilted>1</tilted></feature>
            <threshold>0.0158965308219194</threshold>
            <left_val>-0.1994502991437912</left_val>
            <right_val>0.2458260059356690</right_val></_></_>
        <_>
          <_>
            <feature>
              <rects>
                <_>
                  16 14 1 10 -1.</_>
                <_>
                  16 19 1 5 2.</_></rects>
              <tilted>0</tilted></feature>
            <threshold>7.1690180338919163e-003</threshold>
            <left_val>-0.0451883599162102</left_val>
            <right_val>0.2821680009365082</right_val></_></_>
        <_>
          <_>
            <feature>
              <rects>
                <_>
                  7 14 1 10 -1.</_>
                <_>
                  7 19 1 5 2.</_></rects>
              <tilted>0</tilted></feature>
            <threshold>4.1352137923240662e-003</threshold>
            <left_val>-0.0920381620526314</left_val>
            <right_val>0.5555880069732666</right_val></_></_>
        <_>
          <_>
            <feature>
              <rects>
                <_>
                  14 12 4 8 -1.</_>
                <_>
                  14 16 4 4 2.</_></rects>
              <tilted>0</tilted></feature>
            <threshold>-3.4447989892214537e-003</threshold>
            <left_val>0.1075652986764908</left_val>
            <right_val>-0.2135933041572571</right_val></_></_>
        <_>
          <_>
            <feature>
              <rects>
                <_>
                  4 15 2 2 -1.</_>
                <_>
                  4 15 1 1 2.</_>
                <_>
                  5 16 1 1 2.</_></rects>
              <tilted>0</tilted></feature>
            <threshold>-6.5989798167720437e-004</threshold>
            <left_val>0.4333283901214600</left_val>
            <right_val>-0.1385273039340973</right_val></_></_>
        <_>
          <_>
            <feature>
              <rects>
                <_>
                  6 0 16 14 -1.</_>
                <_>
                  14 0 8 7 2.</_>
                <_>
                  6 7 8 7 2.</_></rects>
              <tilted>0</tilted></feature>
            <threshold>-0.1124794036149979</threshold>
            <left_val>-0.8287919759750366</left_val>
            <right_val>0.0432587116956711</right_val></_></_>
        <_>
          <_>
            <feature>
              <rects>
                <_>
                  2 21 2 1 -1.</_>
                <_>
                  2 21 1 1 2.</_></rects>
              <tilted>1</tilted></feature>
            <threshold>-1.2477550189942122e-003</threshold>
            <left_val>-0.6276335716247559</left_val>
            <right_val>0.0817233622074127</right_val></_></_>
        <_>
          <_>
            <feature>
              <rects>
                <_>
                  6 0 16 14 -1.</_>
                <_>
                  14 0 8 7 2.</_>
                <_>
                  6 7 8 7 2.</_></rects>
              <tilted>0</tilted></feature>
